int ADCModules = 4;

int ADCsize = 32*ADCModules;

int TDCModules = 7;//This was set to 6 which, I think, is the number of FP TDCs - PA

int TDCsize = 128*TDCModules;

int W1ADCChannelLimits[4][4] = {{0,15,64,79},{0+16,15+16,64+16,79+16},{0+32,15+32,64+32,79+32},{0+48,15+48,64+48,79+48}};
int W1TDCChannelLimits[4][2] = {{6*128+64+16,6*128+64+15+16},{6*128+64,6*128+64+15},{6*128+64+48,6*128+64+15+48},{6*128+64+32,6*128+64+15+32}};//TDCs were plugged in the wrong way around. Hence the slightly odd ordering here. 

int PulseLimits[2] = {-1e6, 1e6};//Set these to the something more useful - these should be set so that they are set to either side of the good coincidence peak for the ancillary detectors.

double SiliconOffset[128] = { -265.388,-330.156,-395.185,-397.272,-165.788,-214.156,-229.978,-202.174,-324.848,-272.62,-356.41,-374.941,-455.397,-220.619,-216.768,-229.841,-321.617,-331.127,-193.12,-135.912,-226.387,-202.3,-277.181,-248.784,-214.671,-368.882,-253.489,-346.806,-165.525,-292.17,-315.144,-253.833,5990.75,169.872,-214.4,-119.465,-250.049,-223.191,-235.06,-240.424,-219.015,-566.567,-266.106,-261.249,-219.912,-288.472,-263.32,-209.734,42.3843,-25.0675,6.55898,-66.1273,-103.963,8.46525,-95.2784,23.1151,-86.8718,-66.1169,-115.196,-58.3963,-102.907,-111.312,-133.999,-72.2383,131.114,38.4212,97.8666,76.0419,90.8829,86.9501,27.735,52.1451,14.6001,131.554,113.509,114.853,28.4549,85.7255,85.7699,5990.75,58.9865,-5.54502,36.9608,76.9586,-94.1529,58.4384,-6.4523,-156.624,5990.75,120.223,-73.3325,50.9953,-178.219,69.159,136.9,-47.7108,-3366.56,-3349.09,-6749.22,-3045.09,-6348.74,-3033.12,-4622.45,-4475.27,-3663.75,-4189.21,-5248.75,-2992.07,-3363.95,-3933.27,-2915.65,-8330.37,113.657,153.171,118.707,158.179,164.472,106.568,104.176,177.515,151.039,170.091,47.4105,139.228,146.982,143.642,124.119,108.302};

double SiliconGain[128] = { 2.89992,2.92227,2.8682,3.04037,2.79412,2.76063,2.80737,2.8054,2.76071,2.80218,2.90675,2.91886,2.97159,2.85328,2.83806,2.86555,2.61699,2.61975,2.55996,2.49191,2.61977,2.65159,2.74625,2.6475,2.58194,2.60825,2.49695,2.60474,2.63502,2.67055,2.7638,2.59872,-300000,2.55504,2.7607,2.7442,2.71756,2.72736,2.72283,2.78868,2.72915,2.88413,2.79518,2.6318,2.70299,2.93967,2.7858,2.75767,2.71389,2.81399,2.76065,2.71387,2.7607,2.76613,2.70899,2.67977,2.76162,2.82954,2.83045,2.68543,2.83216,2.80507,2.85574,2.79649,2.5986,2.62327,2.56214,2.57399,2.57577,2.60174,2.56606,2.45463,2.57007,2.59368,2.49321,2.55024,2.59034,2.52201,2.55827,-300000,2.99076,3.09577,3.02391,2.98193,3.37308,3.07233,3.06345,2.98434,-300000,3.20804,3.26108,2.62034,3.24762,3.13202,3.19444,3.07969,4.95042,5.03277,6.58939,4.6296,6.35527,5.05345,6.03018,5.93869,4.96652,5.59658,5.86721,4.91768,5.1959,5.23824,5.1193,7.75181,2.1008,2.16351,2.15257,2.11918,2.17947,2.11502,2.17802,2.07831,2.1276,2.15073,2.11104,2.06365,2.08602,2.15555,2.12159,2.16696};


