int ADCModules = 4;

int ADCsize = 32*ADCModules;

int TDCModules = 7;//This was set to 6 which, I think, is the number of FP TDCs - PA

int TDCsize = 128*TDCModules;

int W1ADCChannelLimits[4][4] = {{0,15,64,79},{0+16,15+16,64+16,79+16},{0+32,15+32,64+32,79+32},{0+48,15+48,64+48,79+48}};
int W1TDCChannelLimits[4][2] = {{6*128+64+16,6*128+64+15+16},{6*128+64,6*128+64+15},{6*128+64+48,6*128+64+15+48},{6*128+64+32,6*128+64+15+32}};//TDCs were plugged in the wrong way around. Hence the slightly odd ordering here. 

int PulseLimits[2] = {-1e6, 1e6};//Set these to the something more useful - these should be set so that they are set to either side of the good coincidence peak for the ancillary detectors.

double SiliconOffset[128] = { -275.417,-330.243,-275.775,-308.078,-262.156,-274.674,-313.893,-268,-311.189,-309.217,-336.598,-353.131,-321.743,-214.892,-364.315,-302.655,-256.381,-239.407,-283.276,-224.062,-259.848,-213.301,-281.073,-258.573,-308.379,-302.122,-299.214,-333.487,-305.542,-303.734,-292.893,-265.522,5990.75,-181.888,-227.518,-175.609,-287.526,-249.377,-225.486,-239.306,-304.465,-226.235,-239.605,-259.475,-265.034,-225.78,-268.233,-207.404,-6.98453,-46.8932,-18.3929,-20.0452,-16.9378,-38.5977,-85.1915,-49.4396,-75.0185,-51.4597,-98.5207,-71.3947,-65.3994,-67.3362,-98.9149,-87.5689,112.542,36.0624,94.7957,68.5585,89.9506,80.6386,35.7866,47.375,12.3554,105.651,75.3678,88.4054,-8.4017,82.8669,63.2148,5990.75,-5.65208,-71.0285,54.775,-1.16493,-61.4222,20.6208,4.86743,-180.845,5990.75,40.2275,-20.7437,68.9191,-200.897,3.00862,58.6016,-30.5684,3.13677,5.55023,-68.9035,-2.03202,-17.9369,30.1773,59.4108,1.20503,-18.6705,37.9553,31.3424,26.3172,132.132,-71.7786,61.6488,26.5163,100.16,145.238,107.382,148.316,146.625,98.7205,95.9477,172.823,142.45,153.206,33.7985,129.929,133.793,129.296,117.572,89.5597};

double SiliconGain[128] = { 2.89292,2.91648,2.82276,3.00013,2.82713,2.7969,2.84622,2.82275,2.74626,2.8159,2.89526,2.90805,2.9275,2.8443,2.91288,2.8934,2.5881,2.58587,2.58802,2.53235,2.64409,2.66518,2.74751,2.65119,2.62318,2.58223,2.51234,2.59889,2.69594,2.67068,2.75088,2.60167,-300000,2.72483,2.7708,2.76445,2.72741,2.72894,2.71297,2.78713,2.76661,2.73316,2.78483,2.64451,2.71862,2.92668,2.78258,2.75205,2.74181,2.82507,2.77946,2.70043,2.71522,2.78449,2.70221,2.71942,2.75587,2.81732,2.82186,2.68917,2.81361,2.80138,2.83702,2.79854,2.60444,2.62055,2.56077,2.57474,2.57553,2.60128,2.56163,2.45632,2.56932,2.60274,2.50431,2.55778,2.60236,2.52246,2.56236,-300000,3.0154,3.12235,3.01651,3.01107,3.3574,3.0897,3.05485,2.9928,-300000,3.24124,3.22376,2.60979,3.25803,3.16356,3.22787,3.06988,2.77165,2.74544,2.79746,2.66442,2.73192,2.81739,2.9386,2.929,2.6892,2.81282,2.76087,2.87736,2.76568,2.75048,2.88592,2.87622,2.10384,2.16517,2.15497,2.12104,2.18372,2.1164,2.18004,2.07813,2.1292,2.15581,2.11438,2.06622,2.08923,2.15886,2.1224,2.17105};

